SNNS network definition file V1.4-3D
generated at Sun Apr  9 13:10:30 2006

network name : snns_5
source files :
no. of units : 65
no. of connections : 1050
no. of unit types : 0
no. of site types : 0


learning function : JE_BP
update function   : JE_Order


unit default section :

act      | bias     | st | subnet | layer | act func     | out func
---------|----------|----|--------|-------|--------------|-------------
 0.00000 |  0.00000 | h  |      0 |     1 | Act_Logistic | Out_Identity 
---------|----------|----|--------|-------|--------------|-------------


unit definition section :

no. | typeName | unitName | act      | bias     | st | position | act func     | out func | sites
----|----------|----------|----------|----------|----|----------|--------------|----------|-------
  1 |          | inp1     |  0.00000 |  0.00000 | i  |  1, 1, 0 | Act_Identity |          | 
  2 |          | inp2     |  0.00000 |  0.00000 | i  |  2, 1, 0 | Act_Identity |          | 
  3 |          | inp3     |  0.00000 |  0.00000 | i  |  1, 2, 0 | Act_Identity |          | 
  4 |          | inp4     |  0.00000 |  0.00000 | i  |  2, 2, 0 | Act_Identity |          | 
  5 |          | inp5     |  0.00000 |  0.00000 | i  |  1, 3, 0 | Act_Identity |          | 
  6 |          | inp6     |  0.00000 |  0.00000 | i  |  2, 3, 0 | Act_Identity |          | 
  7 |          | inp7     |  0.00000 |  0.00000 | i  |  1, 4, 0 | Act_Identity |          | 
  8 |          | inp8     |  0.00000 |  0.00000 | i  |  2, 4, 0 | Act_Identity |          | 
  9 |          | inp9     |  0.00000 |  0.00000 | i  |  1, 5, 0 | Act_Identity |          | 
 10 |          | inp10    |  0.00000 |  0.00000 | i  |  2, 5, 0 | Act_Identity |          | 
 11 |          | hid1     |  0.00000 |  0.00000 | h  | 12, 1, 0 |||
 12 |          | hid2     |  0.00000 |  0.00000 | h  | 13, 1, 0 |||
 13 |          | hid3     |  0.00000 |  0.00000 | h  | 14, 1, 0 |||
 14 |          | hid4     |  0.00000 |  0.00000 | h  | 15, 1, 0 |||
 15 |          | hid5     |  0.00000 |  0.00000 | h  | 16, 1, 0 |||
 16 |          | hid6     |  0.00000 |  0.00000 | h  | 12, 2, 0 |||
 17 |          | hid7     |  0.00000 |  0.00000 | h  | 13, 2, 0 |||
 18 |          | hid8     |  0.00000 |  0.00000 | h  | 14, 2, 0 |||
 19 |          | hid9     |  0.00000 |  0.00000 | h  | 15, 2, 0 |||
 20 |          | hid10    |  0.00000 |  0.00000 | h  | 16, 2, 0 |||
 21 |          | hid11    |  0.00000 |  0.00000 | h  | 12, 3, 0 |||
 22 |          | hid12    |  0.00000 |  0.00000 | h  | 13, 3, 0 |||
 23 |          | hid13    |  0.00000 |  0.00000 | h  | 14, 3, 0 |||
 24 |          | hid14    |  0.00000 |  0.00000 | h  | 15, 3, 0 |||
 25 |          | hid15    |  0.00000 |  0.00000 | h  | 16, 3, 0 |||
 26 |          | hid16    |  0.00000 |  0.00000 | h  | 12, 4, 0 |||
 27 |          | hid17    |  0.00000 |  0.00000 | h  | 13, 4, 0 |||
 28 |          | hid18    |  0.00000 |  0.00000 | h  | 14, 4, 0 |||
 29 |          | hid19    |  0.00000 |  0.00000 | h  | 15, 4, 0 |||
 30 |          | hid20    |  0.00000 |  0.00000 | h  | 16, 4, 0 |||
 31 |          | hid21    |  0.00000 |  0.00000 | h  | 12, 5, 0 |||
 32 |          | hid22    |  0.00000 |  0.00000 | h  | 13, 5, 0 |||
 33 |          | hid23    |  0.00000 |  0.00000 | h  | 14, 5, 0 |||
 34 |          | hid24    |  0.00000 |  0.00000 | h  | 15, 5, 0 |||
 35 |          | hid25    |  0.00000 |  0.00000 | h  | 16, 5, 0 |||
 36 |          | out1     |  0.00000 |  0.00000 | o  | 22, 1, 0 |||
 37 |          | out2     |  0.00000 |  0.00000 | o  | 22, 2, 0 |||
 38 |          | out3     |  0.00000 |  0.00000 | o  | 22, 3, 0 |||
 39 |          | out4     |  0.00000 |  0.00000 | o  | 22, 4, 0 |||
 40 |          | out5     |  0.00000 |  0.00000 | o  | 22, 5, 0 |||
 41 |          | con1     |  0.00000 |  0.00000 | sh  |  5, 7, 0 | Act_Identity |          | 
 42 |          | con2     |  0.00000 |  0.00000 | sh  |  6, 7, 0 | Act_Identity |          | 
 43 |          | con3     |  0.00000 |  0.00000 | sh  |  7, 7, 0 | Act_Identity |          | 
 44 |          | con4     |  0.00000 |  0.00000 | sh  |  8, 7, 0 | Act_Identity |          | 
 45 |          | con5     |  0.00000 |  0.00000 | sh  |  9, 7, 0 | Act_Identity |          | 
 46 |          | con6     |  0.00000 |  0.00000 | sh  |  5, 8, 0 | Act_Identity |          | 
 47 |          | con7     |  0.00000 |  0.00000 | sh  |  6, 8, 0 | Act_Identity |          | 
 48 |          | con8     |  0.00000 |  0.00000 | sh  |  7, 8, 0 | Act_Identity |          | 
 49 |          | con9     |  0.00000 |  0.00000 | sh  |  8, 8, 0 | Act_Identity |          | 
 50 |          | con10    |  0.00000 |  0.00000 | sh  |  9, 8, 0 | Act_Identity |          | 
 51 |          | con11    |  0.00000 |  0.00000 | sh  |  5, 9, 0 | Act_Identity |          | 
 52 |          | con12    |  0.00000 |  0.00000 | sh  |  6, 9, 0 | Act_Identity |          | 
 53 |          | con13    |  0.00000 |  0.00000 | sh  |  7, 9, 0 | Act_Identity |          | 
 54 |          | con14    |  0.00000 |  0.00000 | sh  |  8, 9, 0 | Act_Identity |          | 
 55 |          | con15    |  0.00000 |  0.00000 | sh  |  9, 9, 0 | Act_Identity |          | 
 56 |          | con16    |  0.00000 |  0.00000 | sh  |  5,10, 0 | Act_Identity |          | 
 57 |          | con17    |  0.00000 |  0.00000 | sh  |  6,10, 0 | Act_Identity |          | 
 58 |          | con18    |  0.00000 |  0.00000 | sh  |  7,10, 0 | Act_Identity |          | 
 59 |          | con19    |  0.00000 |  0.00000 | sh  |  8,10, 0 | Act_Identity |          | 
 60 |          | con20    |  0.00000 |  0.00000 | sh  |  9,10, 0 | Act_Identity |          | 
 61 |          | con21    |  0.00000 |  0.00000 | sh  |  5,11, 0 | Act_Identity |          | 
 62 |          | con22    |  0.00000 |  0.00000 | sh  |  6,11, 0 | Act_Identity |          | 
 63 |          | con23    |  0.00000 |  0.00000 | sh  |  7,11, 0 | Act_Identity |          | 
 64 |          | con24    |  0.00000 |  0.00000 | sh  |  8,11, 0 | Act_Identity |          | 
 65 |          | con25    |  0.00000 |  0.00000 | sh  |  9,11, 0 | Act_Identity |          | 
----|----------|----------|----------|----------|----|----------|--------------|----------|-------


connection definition section :

target | site | source:weight
-------|------|---------------------------------------------------------------------------------------------------------------------
    11 |      | 65: 0.00000, 64: 0.00000, 63: 0.00000, 62: 0.00000, 61: 0.00000, 60: 0.00000, 59: 0.00000, 58: 0.00000, 57: 0.00000,
                56: 0.00000, 55: 0.00000, 54: 0.00000, 53: 0.00000, 52: 0.00000, 51: 0.00000, 50: 0.00000, 49: 0.00000, 48: 0.00000,
                47: 0.00000, 46: 0.00000, 45: 0.00000, 44: 0.00000, 43: 0.00000, 42: 0.00000, 41: 0.00000, 10: 0.00000,  9: 0.00000,
                 8: 0.00000,  7: 0.00000,  6: 0.00000,  5: 0.00000,  4: 0.00000,  3: 0.00000,  2: 0.00000,  1: 0.00000
    12 |      | 65: 0.00000, 64: 0.00000, 63: 0.00000, 62: 0.00000, 61: 0.00000, 60: 0.00000, 59: 0.00000, 58: 0.00000, 57: 0.00000,
                56: 0.00000, 55: 0.00000, 54: 0.00000, 53: 0.00000, 52: 0.00000, 51: 0.00000, 50: 0.00000, 49: 0.00000, 48: 0.00000,
                47: 0.00000, 46: 0.00000, 45: 0.00000, 44: 0.00000, 43: 0.00000, 42: 0.00000, 41: 0.00000, 10: 0.00000,  9: 0.00000,
                 8: 0.00000,  7: 0.00000,  6: 0.00000,  5: 0.00000,  4: 0.00000,  3: 0.00000,  2: 0.00000,  1: 0.00000
    13 |      | 65: 0.00000, 64: 0.00000, 63: 0.00000, 62: 0.00000, 61: 0.00000, 60: 0.00000, 59: 0.00000, 58: 0.00000, 57: 0.00000,
                56: 0.00000, 55: 0.00000, 54: 0.00000, 53: 0.00000, 52: 0.00000, 51: 0.00000, 50: 0.00000, 49: 0.00000, 48: 0.00000,
                47: 0.00000, 46: 0.00000, 45: 0.00000, 44: 0.00000, 43: 0.00000, 42: 0.00000, 41: 0.00000, 10: 0.00000,  9: 0.00000,
                 8: 0.00000,  7: 0.00000,  6: 0.00000,  5: 0.00000,  4: 0.00000,  3: 0.00000,  2: 0.00000,  1: 0.00000
    14 |      | 65: 0.00000, 64: 0.00000, 63: 0.00000, 62: 0.00000, 61: 0.00000, 60: 0.00000, 59: 0.00000, 58: 0.00000, 57: 0.00000,
                56: 0.00000, 55: 0.00000, 54: 0.00000, 53: 0.00000, 52: 0.00000, 51: 0.00000, 50: 0.00000, 49: 0.00000, 48: 0.00000,
                47: 0.00000, 46: 0.00000, 45: 0.00000, 44: 0.00000, 43: 0.00000, 42: 0.00000, 41: 0.00000, 10: 0.00000,  9: 0.00000,
                 8: 0.00000,  7: 0.00000,  6: 0.00000,  5: 0.00000,  4: 0.00000,  3: 0.00000,  2: 0.00000,  1: 0.00000
    15 |      | 65: 0.00000, 64: 0.00000, 63: 0.00000, 62: 0.00000, 61: 0.00000, 60: 0.00000, 59: 0.00000, 58: 0.00000, 57: 0.00000,
                56: 0.00000, 55: 0.00000, 54: 0.00000, 53: 0.00000, 52: 0.00000, 51: 0.00000, 50: 0.00000, 49: 0.00000, 48: 0.00000,
                47: 0.00000, 46: 0.00000, 45: 0.00000, 44: 0.00000, 43: 0.00000, 42: 0.00000, 41: 0.00000, 10: 0.00000,  9: 0.00000,
                 8: 0.00000,  7: 0.00000,  6: 0.00000,  5: 0.00000,  4: 0.00000,  3: 0.00000,  2: 0.00000,  1: 0.00000
    16 |      | 65: 0.00000, 64: 0.00000, 63: 0.00000, 62: 0.00000, 61: 0.00000, 60: 0.00000, 59: 0.00000, 58: 0.00000, 57: 0.00000,
                56: 0.00000, 55: 0.00000, 54: 0.00000, 53: 0.00000, 52: 0.00000, 51: 0.00000, 50: 0.00000, 49: 0.00000, 48: 0.00000,
                47: 0.00000, 46: 0.00000, 45: 0.00000, 44: 0.00000, 43: 0.00000, 42: 0.00000, 41: 0.00000, 10: 0.00000,  9: 0.00000,
                 8: 0.00000,  7: 0.00000,  6: 0.00000,  5: 0.00000,  4: 0.00000,  3: 0.00000,  2: 0.00000,  1: 0.00000
    17 |      | 65: 0.00000, 64: 0.00000, 63: 0.00000, 62: 0.00000, 61: 0.00000, 60: 0.00000, 59: 0.00000, 58: 0.00000, 57: 0.00000,
                56: 0.00000, 55: 0.00000, 54: 0.00000, 53: 0.00000, 52: 0.00000, 51: 0.00000, 50: 0.00000, 49: 0.00000, 48: 0.00000,
                47: 0.00000, 46: 0.00000, 45: 0.00000, 44: 0.00000, 43: 0.00000, 42: 0.00000, 41: 0.00000, 10: 0.00000,  9: 0.00000,
                 8: 0.00000,  7: 0.00000,  6: 0.00000,  5: 0.00000,  4: 0.00000,  3: 0.00000,  2: 0.00000,  1: 0.00000
    18 |      | 65: 0.00000, 64: 0.00000, 63: 0.00000, 62: 0.00000, 61: 0.00000, 60: 0.00000, 59: 0.00000, 58: 0.00000, 57: 0.00000,
                56: 0.00000, 55: 0.00000, 54: 0.00000, 53: 0.00000, 52: 0.00000, 51: 0.00000, 50: 0.00000, 49: 0.00000, 48: 0.00000,
                47: 0.00000, 46: 0.00000, 45: 0.00000, 44: 0.00000, 43: 0.00000, 42: 0.00000, 41: 0.00000, 10: 0.00000,  9: 0.00000,
                 8: 0.00000,  7: 0.00000,  6: 0.00000,  5: 0.00000,  4: 0.00000,  3: 0.00000,  2: 0.00000,  1: 0.00000
    19 |      | 65: 0.00000, 64: 0.00000, 63: 0.00000, 62: 0.00000, 61: 0.00000, 60: 0.00000, 59: 0.00000, 58: 0.00000, 57: 0.00000,
                56: 0.00000, 55: 0.00000, 54: 0.00000, 53: 0.00000, 52: 0.00000, 51: 0.00000, 50: 0.00000, 49: 0.00000, 48: 0.00000,
                47: 0.00000, 46: 0.00000, 45: 0.00000, 44: 0.00000, 43: 0.00000, 42: 0.00000, 41: 0.00000, 10: 0.00000,  9: 0.00000,
                 8: 0.00000,  7: 0.00000,  6: 0.00000,  5: 0.00000,  4: 0.00000,  3: 0.00000,  2: 0.00000,  1: 0.00000
    20 |      | 65: 0.00000, 64: 0.00000, 63: 0.00000, 62: 0.00000, 61: 0.00000, 60: 0.00000, 59: 0.00000, 58: 0.00000, 57: 0.00000,
                56: 0.00000, 55: 0.00000, 54: 0.00000, 53: 0.00000, 52: 0.00000, 51: 0.00000, 50: 0.00000, 49: 0.00000, 48: 0.00000,
                47: 0.00000, 46: 0.00000, 45: 0.00000, 44: 0.00000, 43: 0.00000, 42: 0.00000, 41: 0.00000, 10: 0.00000,  9: 0.00000,
                 8: 0.00000,  7: 0.00000,  6: 0.00000,  5: 0.00000,  4: 0.00000,  3: 0.00000,  2: 0.00000,  1: 0.00000
    21 |      | 65: 0.00000, 64: 0.00000, 63: 0.00000, 62: 0.00000, 61: 0.00000, 60: 0.00000, 59: 0.00000, 58: 0.00000, 57: 0.00000,
                56: 0.00000, 55: 0.00000, 54: 0.00000, 53: 0.00000, 52: 0.00000, 51: 0.00000, 50: 0.00000, 49: 0.00000, 48: 0.00000,
                47: 0.00000, 46: 0.00000, 45: 0.00000, 44: 0.00000, 43: 0.00000, 42: 0.00000, 41: 0.00000, 10: 0.00000,  9: 0.00000,
                 8: 0.00000,  7: 0.00000,  6: 0.00000,  5: 0.00000,  4: 0.00000,  3: 0.00000,  2: 0.00000,  1: 0.00000
    22 |      | 65: 0.00000, 64: 0.00000, 63: 0.00000, 62: 0.00000, 61: 0.00000, 60: 0.00000, 59: 0.00000, 58: 0.00000, 57: 0.00000,
                56: 0.00000, 55: 0.00000, 54: 0.00000, 53: 0.00000, 52: 0.00000, 51: 0.00000, 50: 0.00000, 49: 0.00000, 48: 0.00000,
                47: 0.00000, 46: 0.00000, 45: 0.00000, 44: 0.00000, 43: 0.00000, 42: 0.00000, 41: 0.00000, 10: 0.00000,  9: 0.00000,
                 8: 0.00000,  7: 0.00000,  6: 0.00000,  5: 0.00000,  4: 0.00000,  3: 0.00000,  2: 0.00000,  1: 0.00000
    23 |      | 65: 0.00000, 64: 0.00000, 63: 0.00000, 62: 0.00000, 61: 0.00000, 60: 0.00000, 59: 0.00000, 58: 0.00000, 57: 0.00000,
                56: 0.00000, 55: 0.00000, 54: 0.00000, 53: 0.00000, 52: 0.00000, 51: 0.00000, 50: 0.00000, 49: 0.00000, 48: 0.00000,
                47: 0.00000, 46: 0.00000, 45: 0.00000, 44: 0.00000, 43: 0.00000, 42: 0.00000, 41: 0.00000, 10: 0.00000,  9: 0.00000,
                 8: 0.00000,  7: 0.00000,  6: 0.00000,  5: 0.00000,  4: 0.00000,  3: 0.00000,  2: 0.00000,  1: 0.00000
    24 |      | 65: 0.00000, 64: 0.00000, 63: 0.00000, 62: 0.00000, 61: 0.00000, 60: 0.00000, 59: 0.00000, 58: 0.00000, 57: 0.00000,
                56: 0.00000, 55: 0.00000, 54: 0.00000, 53: 0.00000, 52: 0.00000, 51: 0.00000, 50: 0.00000, 49: 0.00000, 48: 0.00000,
                47: 0.00000, 46: 0.00000, 45: 0.00000, 44: 0.00000, 43: 0.00000, 42: 0.00000, 41: 0.00000, 10: 0.00000,  9: 0.00000,
                 8: 0.00000,  7: 0.00000,  6: 0.00000,  5: 0.00000,  4: 0.00000,  3: 0.00000,  2: 0.00000,  1: 0.00000
    25 |      | 65: 0.00000, 64: 0.00000, 63: 0.00000, 62: 0.00000, 61: 0.00000, 60: 0.00000, 59: 0.00000, 58: 0.00000, 57: 0.00000,
                56: 0.00000, 55: 0.00000, 54: 0.00000, 53: 0.00000, 52: 0.00000, 51: 0.00000, 50: 0.00000, 49: 0.00000, 48: 0.00000,
                47: 0.00000, 46: 0.00000, 45: 0.00000, 44: 0.00000, 43: 0.00000, 42: 0.00000, 41: 0.00000, 10: 0.00000,  9: 0.00000,
                 8: 0.00000,  7: 0.00000,  6: 0.00000,  5: 0.00000,  4: 0.00000,  3: 0.00000,  2: 0.00000,  1: 0.00000
    26 |      | 65: 0.00000, 64: 0.00000, 63: 0.00000, 62: 0.00000, 61: 0.00000, 60: 0.00000, 59: 0.00000, 58: 0.00000, 57: 0.00000,
                56: 0.00000, 55: 0.00000, 54: 0.00000, 53: 0.00000, 52: 0.00000, 51: 0.00000, 50: 0.00000, 49: 0.00000, 48: 0.00000,
                47: 0.00000, 46: 0.00000, 45: 0.00000, 44: 0.00000, 43: 0.00000, 42: 0.00000, 41: 0.00000, 10: 0.00000,  9: 0.00000,
                 8: 0.00000,  7: 0.00000,  6: 0.00000,  5: 0.00000,  4: 0.00000,  3: 0.00000,  2: 0.00000,  1: 0.00000
    27 |      | 65: 0.00000, 64: 0.00000, 63: 0.00000, 62: 0.00000, 61: 0.00000, 60: 0.00000, 59: 0.00000, 58: 0.00000, 57: 0.00000,
                56: 0.00000, 55: 0.00000, 54: 0.00000, 53: 0.00000, 52: 0.00000, 51: 0.00000, 50: 0.00000, 49: 0.00000, 48: 0.00000,
                47: 0.00000, 46: 0.00000, 45: 0.00000, 44: 0.00000, 43: 0.00000, 42: 0.00000, 41: 0.00000, 10: 0.00000,  9: 0.00000,
                 8: 0.00000,  7: 0.00000,  6: 0.00000,  5: 0.00000,  4: 0.00000,  3: 0.00000,  2: 0.00000,  1: 0.00000
    28 |      | 65: 0.00000, 64: 0.00000, 63: 0.00000, 62: 0.00000, 61: 0.00000, 60: 0.00000, 59: 0.00000, 58: 0.00000, 57: 0.00000,
                56: 0.00000, 55: 0.00000, 54: 0.00000, 53: 0.00000, 52: 0.00000, 51: 0.00000, 50: 0.00000, 49: 0.00000, 48: 0.00000,
                47: 0.00000, 46: 0.00000, 45: 0.00000, 44: 0.00000, 43: 0.00000, 42: 0.00000, 41: 0.00000, 10: 0.00000,  9: 0.00000,
                 8: 0.00000,  7: 0.00000,  6: 0.00000,  5: 0.00000,  4: 0.00000,  3: 0.00000,  2: 0.00000,  1: 0.00000
    29 |      | 65: 0.00000, 64: 0.00000, 63: 0.00000, 62: 0.00000, 61: 0.00000, 60: 0.00000, 59: 0.00000, 58: 0.00000, 57: 0.00000,
                56: 0.00000, 55: 0.00000, 54: 0.00000, 53: 0.00000, 52: 0.00000, 51: 0.00000, 50: 0.00000, 49: 0.00000, 48: 0.00000,
                47: 0.00000, 46: 0.00000, 45: 0.00000, 44: 0.00000, 43: 0.00000, 42: 0.00000, 41: 0.00000, 10: 0.00000,  9: 0.00000,
                 8: 0.00000,  7: 0.00000,  6: 0.00000,  5: 0.00000,  4: 0.00000,  3: 0.00000,  2: 0.00000,  1: 0.00000
    30 |      | 65: 0.00000, 64: 0.00000, 63: 0.00000, 62: 0.00000, 61: 0.00000, 60: 0.00000, 59: 0.00000, 58: 0.00000, 57: 0.00000,
                56: 0.00000, 55: 0.00000, 54: 0.00000, 53: 0.00000, 52: 0.00000, 51: 0.00000, 50: 0.00000, 49: 0.00000, 48: 0.00000,
                47: 0.00000, 46: 0.00000, 45: 0.00000, 44: 0.00000, 43: 0.00000, 42: 0.00000, 41: 0.00000, 10: 0.00000,  9: 0.00000,
                 8: 0.00000,  7: 0.00000,  6: 0.00000,  5: 0.00000,  4: 0.00000,  3: 0.00000,  2: 0.00000,  1: 0.00000
    31 |      | 65: 0.00000, 64: 0.00000, 63: 0.00000, 62: 0.00000, 61: 0.00000, 60: 0.00000, 59: 0.00000, 58: 0.00000, 57: 0.00000,
                56: 0.00000, 55: 0.00000, 54: 0.00000, 53: 0.00000, 52: 0.00000, 51: 0.00000, 50: 0.00000, 49: 0.00000, 48: 0.00000,
                47: 0.00000, 46: 0.00000, 45: 0.00000, 44: 0.00000, 43: 0.00000, 42: 0.00000, 41: 0.00000, 10: 0.00000,  9: 0.00000,
                 8: 0.00000,  7: 0.00000,  6: 0.00000,  5: 0.00000,  4: 0.00000,  3: 0.00000,  2: 0.00000,  1: 0.00000
    32 |      | 65: 0.00000, 64: 0.00000, 63: 0.00000, 62: 0.00000, 61: 0.00000, 60: 0.00000, 59: 0.00000, 58: 0.00000, 57: 0.00000,
                56: 0.00000, 55: 0.00000, 54: 0.00000, 53: 0.00000, 52: 0.00000, 51: 0.00000, 50: 0.00000, 49: 0.00000, 48: 0.00000,
                47: 0.00000, 46: 0.00000, 45: 0.00000, 44: 0.00000, 43: 0.00000, 42: 0.00000, 41: 0.00000, 10: 0.00000,  9: 0.00000,
                 8: 0.00000,  7: 0.00000,  6: 0.00000,  5: 0.00000,  4: 0.00000,  3: 0.00000,  2: 0.00000,  1: 0.00000
    33 |      | 65: 0.00000, 64: 0.00000, 63: 0.00000, 62: 0.00000, 61: 0.00000, 60: 0.00000, 59: 0.00000, 58: 0.00000, 57: 0.00000,
                56: 0.00000, 55: 0.00000, 54: 0.00000, 53: 0.00000, 52: 0.00000, 51: 0.00000, 50: 0.00000, 49: 0.00000, 48: 0.00000,
                47: 0.00000, 46: 0.00000, 45: 0.00000, 44: 0.00000, 43: 0.00000, 42: 0.00000, 41: 0.00000, 10: 0.00000,  9: 0.00000,
                 8: 0.00000,  7: 0.00000,  6: 0.00000,  5: 0.00000,  4: 0.00000,  3: 0.00000,  2: 0.00000,  1: 0.00000
    34 |      | 65: 0.00000, 64: 0.00000, 63: 0.00000, 62: 0.00000, 61: 0.00000, 60: 0.00000, 59: 0.00000, 58: 0.00000, 57: 0.00000,
                56: 0.00000, 55: 0.00000, 54: 0.00000, 53: 0.00000, 52: 0.00000, 51: 0.00000, 50: 0.00000, 49: 0.00000, 48: 0.00000,
                47: 0.00000, 46: 0.00000, 45: 0.00000, 44: 0.00000, 43: 0.00000, 42: 0.00000, 41: 0.00000, 10: 0.00000,  9: 0.00000,
                 8: 0.00000,  7: 0.00000,  6: 0.00000,  5: 0.00000,  4: 0.00000,  3: 0.00000,  2: 0.00000,  1: 0.00000
    35 |      | 65: 0.00000, 64: 0.00000, 63: 0.00000, 62: 0.00000, 61: 0.00000, 60: 0.00000, 59: 0.00000, 58: 0.00000, 57: 0.00000,
                56: 0.00000, 55: 0.00000, 54: 0.00000, 53: 0.00000, 52: 0.00000, 51: 0.00000, 50: 0.00000, 49: 0.00000, 48: 0.00000,
                47: 0.00000, 46: 0.00000, 45: 0.00000, 44: 0.00000, 43: 0.00000, 42: 0.00000, 41: 0.00000, 10: 0.00000,  9: 0.00000,
                 8: 0.00000,  7: 0.00000,  6: 0.00000,  5: 0.00000,  4: 0.00000,  3: 0.00000,  2: 0.00000,  1: 0.00000
    36 |      | 35: 0.00000, 34: 0.00000, 33: 0.00000, 32: 0.00000, 31: 0.00000, 30: 0.00000, 29: 0.00000, 28: 0.00000, 27: 0.00000,
                26: 0.00000, 25: 0.00000, 24: 0.00000, 23: 0.00000, 22: 0.00000, 21: 0.00000, 20: 0.00000, 19: 0.00000, 18: 0.00000,
                17: 0.00000, 16: 0.00000, 15: 0.00000, 14: 0.00000, 13: 0.00000, 12: 0.00000, 11: 0.00000
    37 |      | 35: 0.00000, 34: 0.00000, 33: 0.00000, 32: 0.00000, 31: 0.00000, 30: 0.00000, 29: 0.00000, 28: 0.00000, 27: 0.00000,
                26: 0.00000, 25: 0.00000, 24: 0.00000, 23: 0.00000, 22: 0.00000, 21: 0.00000, 20: 0.00000, 19: 0.00000, 18: 0.00000,
                17: 0.00000, 16: 0.00000, 15: 0.00000, 14: 0.00000, 13: 0.00000, 12: 0.00000, 11: 0.00000
    38 |      | 35: 0.00000, 34: 0.00000, 33: 0.00000, 32: 0.00000, 31: 0.00000, 30: 0.00000, 29: 0.00000, 28: 0.00000, 27: 0.00000,
                26: 0.00000, 25: 0.00000, 24: 0.00000, 23: 0.00000, 22: 0.00000, 21: 0.00000, 20: 0.00000, 19: 0.00000, 18: 0.00000,
                17: 0.00000, 16: 0.00000, 15: 0.00000, 14: 0.00000, 13: 0.00000, 12: 0.00000, 11: 0.00000
    39 |      | 35: 0.00000, 34: 0.00000, 33: 0.00000, 32: 0.00000, 31: 0.00000, 30: 0.00000, 29: 0.00000, 28: 0.00000, 27: 0.00000,
                26: 0.00000, 25: 0.00000, 24: 0.00000, 23: 0.00000, 22: 0.00000, 21: 0.00000, 20: 0.00000, 19: 0.00000, 18: 0.00000,
                17: 0.00000, 16: 0.00000, 15: 0.00000, 14: 0.00000, 13: 0.00000, 12: 0.00000, 11: 0.00000
    40 |      | 35: 0.00000, 34: 0.00000, 33: 0.00000, 32: 0.00000, 31: 0.00000, 30: 0.00000, 29: 0.00000, 28: 0.00000, 27: 0.00000,
                26: 0.00000, 25: 0.00000, 24: 0.00000, 23: 0.00000, 22: 0.00000, 21: 0.00000, 20: 0.00000, 19: 0.00000, 18: 0.00000,
                17: 0.00000, 16: 0.00000, 15: 0.00000, 14: 0.00000, 13: 0.00000, 12: 0.00000, 11: 0.00000
    41 |      | 41: 0.00000, 11: 0.00000
    42 |      | 42: 0.00000, 12: 0.00000
    43 |      | 43: 0.00000, 13: 0.00000
    44 |      | 44: 0.00000, 14: 0.00000
    45 |      | 45: 0.00000, 15: 0.00000
    46 |      | 46: 0.00000, 16: 0.00000
    47 |      | 47: 0.00000, 17: 0.00000
    48 |      | 48: 0.00000, 18: 0.00000
    49 |      | 49: 0.00000, 19: 0.00000
    50 |      | 50: 0.00000, 20: 0.00000
    51 |      | 51: 0.00000, 21: 0.00000
    52 |      | 52: 0.00000, 22: 0.00000
    53 |      | 53: 0.00000, 23: 0.00000
    54 |      | 54: 0.00000, 24: 0.00000
    55 |      | 55: 0.00000, 25: 0.00000
    56 |      | 56: 0.00000, 26: 0.00000
    57 |      | 57: 0.00000, 27: 0.00000
    58 |      | 58: 0.00000, 28: 0.00000
    59 |      | 59: 0.00000, 29: 0.00000
    60 |      | 60: 0.00000, 30: 0.00000
    61 |      | 61: 0.00000, 31: 0.00000
    62 |      | 62: 0.00000, 32: 0.00000
    63 |      | 63: 0.00000, 33: 0.00000
    64 |      | 64: 0.00000, 34: 0.00000
    65 |      | 65: 0.00000, 35: 0.00000
-------|------|---------------------------------------------------------------------------------------------------------------------
